4 100
derp 0.0015132 -0.029263 0.0049804 0.054054 -0.042569 -0.018639 0.035823 0.026145 -0.065771 -0.075563 0.04635 0.0077657 -0.0029232 -0.015049 0.031651 0.019347 -0.010472 -0.014835 0.032899 0.0021921 -0.014602 -0.037327 -0.0077996 -0.013069 0.023134 0.041507 0.000205 0.056602 0.061089 -0.016609 0.02725 -0.017481 0.039446 0.028137 0.098489 0.024003 0.034527 -0.010145 -0.01744 -0.0025477 0.022345 -0.066035 -0.0056722 -0.0068098 -0.025233 -0.022155 -0.048228 0.0024716 0.0075693 -0.051357 0.039798 -0.0082218 -0.0011088 -0.0023229 0.072096 -0.014259 0.022544 0.0157 -0.024828 0.01156 0.001249 -0.066382 -0.072352 -0.05733 0.034479 -0.0049751 0.079879 0.0094756 -0.030554 0.034939 -0.0021537 -0.038177 -0.016613 0.054666 0.042817 0.0013992 -0.067949 -0.049613 -0.063724 0.036882 0.0060428 -0.0015407 -0.04006 0.040244 0.00027743 0.042648 0.014944 -0.012143 0.020787 0.014784 -0.028344 -0.018902 -0.077223 0.039685 -0.045003 0.038169 -0.010577 -0.065961 0.025499 -0.0033872 
</s> -0.074065 0.086221 -0.048227 -0.048239 0.066757 0.019732 0.04267 -0.0079349 0.11836 0.10946 -0.031372 0.013179 0.088648 0.079108 -0.06845 -0.030012 0.018111 0.079429 -0.021297 -0.097884 -0.021382 0.097658 0.065749 -0.049658 0.043908 -0.091447 -0.0031859 -0.056859 -0.032822 0.09539 -0.086391 -0.030202 -0.086971 -0.082453 -0.1313 -0.025051 0.0086452 -0.073753 -0.012957 -0.076615 0.076979 0.13066 0.033221 0.031573 -0.028935 0.037197 -0.020656 -0.051954 -0.10236 0.051208 -0.088297 0.10707 -0.099049 0.063808 -0.040904 -0.039946 -0.0055355 0.012964 0.061455 0.024735 -0.059204 0.078398 0.10001 0.088976 -0.033978 0.0014378 -0.11153 0.05437 0.083148 0.042647 -0.10323 0.017259 -0.027608 -0.019157 -0.018172 -0.049469 0.11542 0.10912 0.015874 -0.040359 -0.086407 0.048651 0.10391 -0.10638 -0.052855 -0.092435 -7.7714e-07 -0.0091836 -0.041276 -0.027451 0.11241 0.061102 0.11151 -0.097442 0.043571 -0.095832 0.067545 0.1208 -0.070958 -0.028512 
derpderp -0.028426 0.037871 -0.029882 -0.038451 0.041367 0.0026306 0.0035462 -0.023273 0.089087 0.085571 -0.040445 0.004081 0.044843 0.035669 -0.044218 -0.011831 0.013863 0.039641 -0.026791 -0.045183 0.0047575 0.046522 0.024676 -0.021883 0.020408 -0.059964 0.0097426 -0.057871 -0.043642 0.060863 -0.046045 -0.001772 -0.063138 -0.044197 -0.10212 -0.027934 -0.011225 -0.025684 0.0094939 -0.024184 0.025774 0.080858 0.026884 0.015784 -0.0061614 0.028905 0.0097364 -0.015367 -0.043528 0.047788 -0.057166 0.055541 -0.043029 0.023036 -0.050218 -0.0095755 -0.002269 -0.0081687 0.025563 0.0061397 -0.01931 0.069576 0.079173 0.068959 -0.037732 0.0080242 -0.080352 0.024079 0.060245 0.0032511 -0.043151 0.022076 -0.0078933 -0.033887 -0.031575 -0.020111 0.090753 0.063433 0.034035 -0.043458 -0.036354 0.025646 0.055547 -0.073955 -0.032252 -0.071107 -0.0061778 0.015252 -0.016005 -0.025725 0.055597 0.035385 0.091369 -0.070543 0.036954 -0.064569 0.036797 0.089158 -0.034503 0.00031875 
derpderpderp -0.077731 0.11601 -0.069354 -0.088381 0.098377 0.037426 0.013058 -0.033052 0.18794 0.18493 -0.076979 0.024272 0.092672 0.097844 -0.085647 -0.046865 0.017213 0.085019 -0.036162 -0.10157 0.0070879 0.13614 0.069597 -0.047041 0.030116 -0.12401 0.018527 -0.11335 -0.095564 0.11756 -0.099117 -0.0098957 -0.13021 -0.094221 -0.21632 -0.034976 -0.010112 -0.074253 0.00092678 -0.066 0.072326 0.16949 0.042148 0.026331 -0.017641 0.048531 0.020818 -0.051343 -0.10015 0.097553 -0.13047 0.10983 -0.095973 0.051599 -0.099511 -0.042845 -0.01399 0.002592 0.078796 0.020627 -0.073574 0.14102 0.16675 0.12765 -0.079495 0.013486 -0.16956 0.045837 0.12043 0.0152 -0.093377 0.048689 -0.020132 -0.053654 -0.053013 -0.038502 0.18612 0.16103 0.070731 -0.088705 -0.096013 0.063924 0.15186 -0.14442 -0.050561 -0.14178 -0.012092 0.021865 -0.064675 -0.059843 0.13811 0.07166 0.19163 -0.14426 0.070947 -0.144 0.083021 0.19122 -0.093365 -0.015657 
